#Parameter# /W1 {2,64} 2049 ZERO_GRAD
+5.00000000e-01 +5.00000000e-01 +5.00000000e-01 +5.00000000e-01 +5.00000000e-01 +5.00000000e-01 +5.00000000e-01 +5.00000000e-01 +5.00000000e-01 +5.00000000e-01 +5.00000000e-01 +5.00000000e-01 +5.00000000e-01 +5.00000000e-01 +5.00000000e-01 +5.00000000e-01 +5.00000000e-01 +5.00000000e-01 +5.00000000e-01 +5.00000000e-01 +5.00000000e-01 +5.00000000e-01 +5.00000000e-01 +5.00000000e-01 +5.00000000e-01 +5.00000000e-01 +5.00000000e-01 +5.00000000e-01 +5.00000000e-01 +5.00000000e-01 +5.00000000e-01 +5.00000000e-01 +5.00000000e-01 +5.00000000e-01 +5.00000000e-01 +5.00000000e-01 +5.00000000e-01 +5.00000000e-01 +5.00000000e-01 +5.00000000e-01 +5.00000000e-01 +5.00000000e-01 +5.00000000e-01 +5.00000000e-01 +5.00000000e-01 +5.00000000e-01 +5.00000000e-01 +5.00000000e-01 +5.00000000e-01 +5.00000000e-01 +5.00000000e-01 +5.00000000e-01 +5.00000000e-01 +5.00000000e-01 +5.00000000e-01 +5.00000000e-01 +5.00000000e-01 +5.00000000e-01 +5.00000000e-01 +5.00000000e-01 +5.00000000e-01 +5.00000000e-01 +5.00000000e-01 +5.00000000e-01 +1.25000000e+00 +1.25000000e+00 +1.25000000e+00 +1.25000000e+00 +1.25000000e+00 +1.25000000e+00 +1.25000000e+00 +1.25000000e+00 +1.25000000e+00 +1.25000000e+00 +1.25000000e+00 +1.25000000e+00 +1.25000000e+00 +1.25000000e+00 +1.25000000e+00 +1.25000000e+00 +1.25000000e+00 +1.25000000e+00 +1.25000000e+00 +1.25000000e+00 +1.25000000e+00 +1.25000000e+00 +1.25000000e+00 +1.25000000e+00 +1.25000000e+00 +1.25000000e+00 +1.25000000e+00 +1.25000000e+00 +1.25000000e+00 +1.25000000e+00 +1.25000000e+00 +1.25000000e+00 +1.25000000e+00 +1.25000000e+00 +1.25000000e+00 +1.25000000e+00 +1.25000000e+00 +1.25000000e+00 +1.25000000e+00 +1.25000000e+00 +1.25000000e+00 +1.25000000e+00 +1.25000000e+00 +1.25000000e+00 +1.25000000e+00 +1.25000000e+00 +1.25000000e+00 +1.25000000e+00 +1.25000000e+00 +1.25000000e+00 +1.25000000e+00 +1.25000000e+00 +1.25000000e+00 +1.25000000e+00 +1.25000000e+00 +1.25000000e+00 +1.25000000e+00 +1.25000000e+00 +1.25000000e+00 +1.25000000e+00 +1.25000000e+00 +1.25000000e+00 +1.25000000e+00 +1.25000000e+00 
#Parameter# /W2 {1,2} 33 ZERO_GRAD
+1.00000000e+00 +1.00000000e+00 
#Parameter# /b1 {2} 33 ZERO_GRAD
+0.00000000e+00 +0.00000000e+00 
#Parameter# /b2 {1} 17 ZERO_GRAD
+0.00000000e+00 
